{"learner":{"attributes":{"scikit_learn":"{\"_estimator_type\": \"regressor\"}"},"feature_names":[],"feature_types":[],"gradient_booster":{"model":{"gbtree_model_param":{"num_parallel_tree":"1","num_trees":"100"},"iteration_indptr":[0,1,2,3,4,5,6,7,8,9,10,11,12,13,14,15,16,17,18,19,20,21,22,23,24,25,26,27,28,29,30,31,32,33,34,35,36,37,38,39,40,41,42,43,44,45,46,47,48,49,50,51,52,53,54,55,56,57,58,59,60,61,62,63,64,65,66,67,68,69,70,71,72,73,74,75,76,77,78,79,80,81,82,83,84,85,86,87,88,89,90,91,92,93,94,95,96,97,98,99,100],"tree_info":[0,0,0,0,0,0,0,0,0,0,0,0,0,0,0,0,0,0,0,0,0,0,0,0,0,0,0,0,0,0,0,0,0,0,0,0,0,0,0,0,0,0,0,0,0,0,0,0,0,0,0,0,0,0,0,0,0,0,0,0,0,0,0,0,0,0,0,0,0,0,0,0,0,0,0,0,0,0,0,0,0,0,0,0,0,0,0,0,0,0,0,0,0,0,0,0,0,0,0,0],"trees":[{"base_weights":[-0E0,-4.1666665E0,4.1666665E0,-1.44E0,-1.5E-1,1.5E-1,1.44E0],"categories":[],"categories_nodes":[],"categories_segments":[],"categories_sizes":[],"default_left":[0,0,0,0,0,0,0],"id":0,"left_children":[1,3,5,-1,-1,-1,-1],"loss_changes":[2.0833333E2,1.1533333E1,1.1533333E1,0E0,0E0,0E0,0E0],"parents":[2147483647,0,0,1,1,2,2],"right_children":[2,4,6,-1,-1,-1,-1],"split_conditions":[5E0,4E0,6E0,-1.44E0,-1.5E-1,1.5E-1,1.44E0],"split_indices":[0,0,0,0,0,0,0],"split_type":[0,0,0,0,0,0,0],"sum_hessian":[1E1,5E0,5E0,4E0,1E0,1E0,4E0],"tree_param":{"num_deleted":"0","num_feature":"1","num_nodes":"7","size_leaf_vector":"1"}},{"base_weights":[-1.7339534E-7,-3.1816666E0,3.1816664E0,-1.251E0,-2.4100004E-1,2.41E-1,1.2509999E0],"categories":[],"categories_nodes":[],"categories_segments":[],"categories_sizes":[],"default_left":[0,0,0,0,0,0,0],"id":1,"left_children":[1,3,5,-1,-1,-1,-1],"loss_changes":[1.2147603E2,1.07536125E1,1.0753616E1,0E0,0E0,0E0,0E0],"parents":[2147483647,0,0,1,1,2,2],"right_children":[2,4,6,-1,-1,-1,-1],"split_conditions":[5E0,3E0,7E0,-1.251E0,-2.4100004E-1,2.41E-1,1.2509999E0],"split_indices":[0,0,0,0,0,0,0],"split_type":[0,0,0,0,0,0,0],"sum_hessian":[1E1,5E0,5E0,3E0,2E0,2E0,3E0],"tree_param":{"num_deleted":"0","num_feature":"1","num_nodes":"7","size_leaf_vector":"1"}},{"base_weights":[-4.3348834E-8,-2.4758334E0,2.4758332E0,-9.6952504E-1,-1.928E-1,1.9279997E-1,9.6952504E-1],"categories":[],"categories_nodes":[],"categories_segments":[],"categories_sizes":[],"default_left":[0,0,0,0,0,0,0],"id":2,"left_children":[1,3,5,-1,-1,-1,-1],"loss_changes":[7.355701E1,6.2373886E0,6.2373924E0,0E0,0E0,0E0,0E0],"parents":[2147483647,0,0,1,1,2,2],"right_children":[2,4,6,-1,-1,-1,-1],"split_conditions":[5E0,3E0,7E0,-9.6952504E-1,-1.928E-1,1.9279997E-1,9.6952504E-1],"split_indices":[0,0,0,0,0,0,0],"split_type":[0,0,0,0,0,0,0],"sum_hessian":[1E1,5E0,5E0,3E0,2E0,2E0,3E0],"tree_param":{"num_deleted":"0","num_feature":"1","num_nodes":"7","size_leaf_vector":"1"}},{"base_weights":[-1.300465E-7,-1.9268043E0,1.9268041E0,-8.6789507E-1,-7.204689E-1,7.2046876E-1,8.67895E-1,-2.4656749E-1,-6.24301E-2,6.24301E-2,2.4656746E-1],"categories":[],"categories_nodes":[],"categories_segments":[],"categories_sizes":[],"default_left":[0,0,0,0,0,0,0,0,0,0,0],"id":3,"left_children":[1,3,5,-1,7,9,-1,-1,-1,-1,-1],"loss_changes":[4.4550896E1,4.9089127E0,4.9089127E0,0E0,3.6827564E-2,3.6827326E-2,0E0,0E0,0E0,0E0,0E0],"parents":[2147483647,0,0,1,1,2,2,4,4,5,5],"right_children":[2,4,6,-1,8,10,-1,-1,-1,-1,-1],"split_conditions":[5E0,2E0,8E0,-8.6789507E-1,4E0,6E0,8.67895E-1,-2.4656749E-1,-6.24301E-2,6.24301E-2,2.4656746E-1],"split_indices":[0,0,0,0,0,0,0,0,0,0,0],"split_type":[0,0,0,0,0,0,0,0,0,0,0],"sum_hessian":[1E1,5E0,5E0,2E0,3E0,3E0,2E0,2E0,1E0,1E0,2E0],"tree_param":{"num_deleted":"0","num_feature":"1","num_nodes":"11","size_leaf_vector":"1"}},{"base_weights":[-1.7339534E-7,-1.5449117E0,1.5449114E0,-6.94316E-1,-5.8157754E-1,5.815773E-1,6.943159E-1,-1.97254E-1,-5.3065542E-2,5.3065542E-2,1.972539E-1],"categories":[],"categories_nodes":[],"categories_segments":[],"categories_sizes":[],"default_left":[0,0,0,0,0,0,0,0,0,0,0],"id":4,"left_children":[1,3,5,-1,7,9,-1,-1,-1,-1,-1],"loss_changes":[2.8641022E1,3.101573E0,3.101574E0,0E0,6.618142E-3,6.618023E-3,0E0,0E0,0E0,0E0,0E0],"parents":[2147483647,0,0,1,1,2,2,4,4,5,5],"right_children":[2,4,6,-1,8,10,-1,-1,-1,-1,-1],"split_conditions":[5E0,2E0,8E0,-6.94316E-1,4E0,6E0,6.943159E-1,-1.97254E-1,-5.3065542E-2,5.3065542E-2,1.972539E-1],"split_indices":[0,0,0,0,0,0,0,0,0,0,0],"split_type":[0,0,0,0,0,0,0,0,0,0,0],"sum_hessian":[1E1,5E0,5E0,2E0,3E0,3E0,2E0,2E0,1E0,1E0,2E0],"tree_param":{"num_deleted":"0","num_feature":"1","num_nodes":"11","size_leaf_vector":"1"}},{"base_weights":[-1.7339534E-7,-1.2388774E0,1.2388772E0,-5.554529E-1,-1.4090525E-1,1.4090517E-1,5.5545276E-1],"categories":[],"categories_nodes":[],"categories_segments":[],"categories_sizes":[],"default_left":[0,0,0,0,0,0,0],"id":5,"left_children":[1,3,5,-1,-1,-1,-1],"loss_changes":[1.8417805E1,1.9577694E0,1.9577703E0,0E0,0E0,0E0,0E0],"parents":[2147483647,0,0,1,1,2,2],"right_children":[2,4,6,-1,-1,-1,-1],"split_conditions":[5E0,2E0,8E0,-5.554529E-1,-1.4090525E-1,1.4090517E-1,5.5545276E-1],"split_indices":[0,0,0,0,0,0,0],"split_type":[0,0,0,0,0,0,0],"sum_hessian":[1E1,5E0,5E0,2E0,3E0,3E0,2E0],"tree_param":{"num_deleted":"0","num_feature":"1","num_nodes":"7","size_leaf_vector":"1"}},{"base_weights":[-8.669767E-8,-9.832738E-1,9.832737E-1,-4.4436225E-1,-3.640051E-1,3.6400485E-1,4.4436225E-1,-1.2962209E-1,-2.3969937E-2,2.3969937E-2,1.2962198E-1],"categories":[],"categories_nodes":[],"categories_segments":[],"categories_sizes":[],"default_left":[0,0,0,0,0,0,0,0,0,0,0],"id":6,"left_children":[1,3,5,-1,7,9,-1,-1,-1,-1,-1],"loss_changes":[1.1601927E1,1.3109612E0,1.3109627E0,0E0,4.2831898E-2,4.283178E-2,0E0,0E0,0E0,0E0,0E0],"parents":[2147483647,0,0,1,1,2,2,4,4,5,5],"right_children":[2,4,6,-1,8,10,-1,-1,-1,-1,-1],"split_conditions":[5E0,2E0,8E0,-4.4436225E-1,4E0,6E0,4.4436225E-1,-1.2962209E-1,-2.3969937E-2,2.3969937E-2,1.2962198E-1],"split_indices":[0,0,0,0,0,0,0,0,0,0,0],"split_type":[0,0,0,0,0,0,0,0,0,0,0],"sum_hessian":[1E1,5E0,5E0,2E0,3E0,3E0,2E0,2E0,1E0,1E0,2E0],"tree_param":{"num_deleted":"0","num_feature":"1","num_nodes":"11","size_leaf_vector":"1"}},{"base_weights":[-1.7339534E-7,-7.879508E-1,7.879505E-1,-4.166174E-1,-3.900512E-1,3.900509E-1,4.166173E-1,-1.3608195E-1,-2.037449E-2,2.037449E-2,1.3608184E-1],"categories":[],"categories_nodes":[],"categories_segments":[],"categories_sizes":[],"default_left":[0,0,0,0,0,0,0,0,0,0,0],"id":7,"left_children":[1,3,5,-1,7,9,-1,-1,-1,-1,-1],"loss_changes":[7.450395E0,8.926127E-1,8.926127E-1,0E0,7.156062E-2,7.156056E-2,0E0,0E0,0E0,0E0,0E0],"parents":[2147483647,0,0,1,1,2,2,4,4,5,5],"right_children":[2,4,6,-1,8,10,-1,-1,-1,-1,-1],"split_conditions":[5E0,1E0,9E0,-4.166174E-1,4E0,6E0,4.166173E-1,-1.3608195E-1,-2.037449E-2,2.037449E-2,1.3608184E-1],"split_indices":[0,0,0,0,0,0,0,0,0,0,0],"split_type":[0,0,0,0,0,0,0,0,0,0,0],"sum_hessian":[1E1,5E0,5E0,1E0,4E0,4E0,1E0,3E0,1E0,1E0,3E0],"tree_param":{"num_deleted":"0","num_feature":"1","num_nodes":"11","size_leaf_vector":"1"}},{"base_weights":[-6.502325E-8,-6.4707786E-1,6.4707774E-1,-3.5412478E-1,-3.0432707E-1,3.04327E-1,3.541247E-1,-1.0546348E-1,-1.7318346E-2,1.7318346E-2,1.0546346E-1],"categories":[],"categories_nodes":[],"categories_segments":[],"categories_sizes":[],"default_left":[0,0,0,0,0,0,0,0,0,0,0],"id":8,"left_children":[1,3,5,-1,7,9,-1,-1,-1,-1,-1],"loss_changes":[5.0245156E0,7.375796E-1,7.375796E-1,0E0,3.792557E-2,3.792554E-2,0E0,0E0,0E0,0E0,0E0],"parents":[2147483647,0,0,1,1,2,2,4,4,5,5],"right_children":[2,4,6,-1,8,10,-1,-1,-1,-1,-1],"split_conditions":[5E0,1E0,9E0,-3.5412478E-1,4E0,6E0,3.541247E-1,-1.0546348E-1,-1.7318346E-2,1.7318346E-2,1.0546346E-1],"split_indices":[0,0,0,0,0,0,0,0,0,0,0],"split_type":[0,0,0,0,0,0,0,0,0,0,0],"sum_hessian":[1E1,5E0,5E0,1E0,4E0,4E0,1E0,3E0,1E0,1E0,3E0],"tree_param":{"num_deleted":"0","num_feature":"1","num_nodes":"11","size_leaf_vector":"1"}},{"base_weights":[4.3348834E-8,-5.324388E-1,5.3243893E-1,-3.0100605E-1,-2.3758522E-1,2.3758546E-1,3.0100596E-1,-9.194844E-2,-2.6844168E-2,2.6844217E-2,9.194852E-2],"categories":[],"categories_nodes":[],"categories_segments":[],"categories_sizes":[],"default_left":[0,0,0,0,0,0,0,0,0,0,0],"id":9,"left_children":[1,3,5,-1,7,9,-1,-1,-1,-1,-1],"loss_changes":[3.4018939E0,5.9472334E-1,5.947219E-1,0E0,2.3603827E-2,2.3603767E-2,0E0,0E0,0E0,0E0,0E0],"parents":[2147483647,0,0,1,1,2,2,4,4,5,5],"right_children":[2,4,6,-1,8,10,-1,-1,-1,-1,-1],"split_conditions":[5E0,1E0,9E0,-3.0100605E-1,3E0,7E0,3.0100596E-1,-9.194844E-2,-2.6844168E-2,2.6844217E-2,9.194852E-2],"split_indices":[0,0,0,0,0,0,0,0,0,0,0],"split_type":[0,0,0,0,0,0,0,0,0,0,0],"sum_hessian":[1E1,5E0,5E0,1E0,4E0,4E0,1E0,2E0,2E0,2E0,2E0],"tree_param":{"num_deleted":"0","num_feature":"1","num_nodes":"11","size_leaf_vector":"1"}},{"base_weights":[2.1674417E-8,-4.4267365E-1,4.4267368E-1,-2.5585514E-1,-1.900682E-1,1.9006844E-1,2.55855E-1,-7.355874E-2,-2.1475364E-2,2.1475412E-2,7.3558815E-2],"categories":[],"categories_nodes":[],"categories_segments":[],"categories_sizes":[],"default_left":[0,0,0,0,0,0,0,0,0,0,0],"id":10,"left_children":[1,3,5,-1,7,9,-1,-1,-1,-1,-1],"loss_changes":[2.3515196E0,4.5957768E-1,4.5957625E-1,0E0,1.5106365E-2,1.5106335E-2,0E0,0E0,0E0,0E0,0E0],"parents":[2147483647,0,0,1,1,2,2,4,4,5,5],"right_children":[2,4,6,-1,8,10,-1,-1,-1,-1,-1],"split_conditions":[5E0,1E0,9E0,-2.5585514E-1,3E0,7E0,2.55855E-1,-7.355874E-2,-2.1475364E-2,2.1475412E-2,7.3558815E-2],"split_indices":[0,0,0,0,0,0,0,0,0,0,0],"split_type":[0,0,0,0,0,0,0,0,0,0,0],"sum_hessian":[1E1,5E0,5E0,1E0,4E0,4E0,1E0,2E0,2E0,2E0,2E0],"tree_param":{"num_deleted":"0","num_feature":"1","num_nodes":"11","size_leaf_vector":"1"}},{"base_weights":[-6.502325E-8,-3.68353E-1,3.683529E-1,-2.1747687E-1,-1.5205446E-1,1.520546E-1,2.1747667E-1,-5.3284142E-2,-7.472563E-3,7.472563E-3,5.3284194E-2],"categories":[],"categories_nodes":[],"categories_segments":[],"categories_sizes":[],"default_left":[0,0,0,0,0,0,0,0,0,0,0],"id":11,"left_children":[1,3,5,-1,7,9,-1,-1,-1,-1,-1],"loss_changes":[1.6282067E0,3.525256E-1,3.5252416E-1,0E0,1.1824727E-2,1.1824749E-2,0E0,0E0,0E0,0E0,0E0],"parents":[2147483647,0,0,1,1,2,2,4,4,5,5],"right_children":[2,4,6,-1,8,10,-1,-1,-1,-1,-1],"split_conditions":[5E0,1E0,9E0,-2.1747687E-1,4E0,6E0,2.1747667E-1,-5.3284142E-2,-7.472563E-3,7.472563E-3,5.3284194E-2],"split_indices":[0,0,0,0,0,0,0,0,0,0,0],"split_type":[0,0,0,0,0,0,0,0,0,0,0],"sum_hessian":[1E1,5E0,5E0,1E0,4E0,4E0,1E0,3E0,1E0,1E0,3E0],"tree_param":{"num_deleted":"0","num_feature":"1","num_nodes":"11","size_leaf_vector":"1"}},{"base_weights":[-1.08372085E-7,-3.0421928E-1,3.042191E-1,-1.8485534E-1,-1.1858936E-1,1.1858921E-1,1.8485528E-1,-4.8190143E-2,-1.1104537E-2,1.1104489E-2,4.819012E-2],"categories":[],"categories_nodes":[],"categories_segments":[],"categories_sizes":[],"default_left":[0,0,0,0,0,0,0,0,0,0,0],"id":12,"left_children":[1,3,5,-1,7,9,-1,-1,-1,-1,-1],"loss_changes":[1.1105918E0,2.7438754E-1,2.7438754E-1,0E0,1.1202842E-2,1.1202894E-2,0E0,0E0,0E0,0E0,0E0],"parents":[2147483647,0,0,1,1,2,2,4,4,5,5],"right_children":[2,4,6,-1,8,10,-1,-1,-1,-1,-1],"split_conditions":[5E0,1E0,9E0,-1.8485534E-1,3E0,7E0,1.8485528E-1,-4.8190143E-2,-1.1104537E-2,1.1104489E-2,4.819012E-2],"split_indices":[0,0,0,0,0,0,0,0,0,0,0],"split_type":[0,0,0,0,0,0,0,0,0,0,0],"sum_hessian":[1E1,5E0,5E0,1E0,4E0,4E0,1E0,2E0,2E0,2E0,2E0],"tree_param":{"num_deleted":"0","num_feature":"1","num_nodes":"11","size_leaf_vector":"1"}},{"base_weights":[-3.2511625E-8,-2.5364515E-1,2.536451E-1,-1.5712705E-1,-9.487148E-2,9.487133E-2,1.571271E-1,-3.855212E-2,-8.88362E-3,8.883572E-3,3.8552094E-2],"categories":[],"categories_nodes":[],"categories_segments":[],"categories_sizes":[],"default_left":[0,0,0,0,0,0,0,0,0,0,0],"id":13,"left_children":[1,3,5,-1,7,9,-1,-1,-1,-1,-1],"loss_changes":[7.7203023E-1,2.0763019E-1,2.0763054E-1,0E0,7.1698353E-3,7.1698762E-3,0E0,0E0,0E0,0E0,0E0],"parents":[2147483647,0,0,1,1,2,2,4,4,5,5],"right_children":[2,4,6,-1,8,10,-1,-1,-1,-1,-1],"split_conditions":[5E0,1E0,9E0,-1.5712705E-1,3E0,7E0,1.571271E-1,-3.855212E-2,-8.88362E-3,8.883572E-3,3.8552094E-2],"split_indices":[0,0,0,0,0,0,0,0,0,0,0],"split_type":[0,0,0,0,0,0,0,0,0,0,0],"sum_hessian":[1E1,5E0,5E0,1E0,4E0,4E0,1E0,2E0,2E0,2E0,2E0],"tree_param":{"num_deleted":"0","num_feature":"1","num_nodes":"11","size_leaf_vector":"1"}},{"base_weights":[-8.669767E-8,-3.7358555E-1,1.2452841E-1,-1.3355799E-1,-3.455551E-2,-6.81196E-8,3.7358537E-1,-3.727901E-2,3.727889E-2,3.4555435E-2,1.3355799E-1,-1.2676001E-2,-3.353405E-3,3.353405E-3,1.2675954E-2],"categories":[],"categories_nodes":[],"categories_segments":[],"categories_sizes":[],"default_left":[0,0,0,0,0,0,0,0,0,0,0,0,0,0,0],"id":14,"left_children":[1,3,5,-1,-1,7,9,11,13,-1,-1,-1,-1,-1,-1],"loss_changes":[5.582644E-1,4.230857E-3,2.791322E-1,0E0,0E0,1.1117761E-2,4.2310953E-3,4.703086E-5,4.7026202E-5,0E0,0E0,0E0,0E0,0E0,0E0],"parents":[2147483647,0,0,1,1,2,2,5,5,6,6,7,7,8,8],"right_children":[2,4,6,-1,-1,8,10,12,14,-1,-1,-1,-1,-1,-1],"split_conditions":[2E0,1E0,8E0,-1.3355799E-1,-3.455551E-2,5E0,9E0,4E0,6E0,3.4555435E-2,1.3355799E-1,-1.2676001E-2,-3.353405E-3,3.353405E-3,1.2675954E-2],"split_indices":[0,0,0,0,0,0,0,0,0,0,0,0,0,0,0],"split_type":[0,0,0,0,0,0,0,0,0,0,0,0,0,0,0],"sum_hessian":[1E1,2E0,8E0,1E0,1E0,6E0,2E0,3E0,3E0,1E0,1E0,2E0,1E0,1E0,2E0],"tree_param":{"num_deleted":"0","num_feature":"1","num_nodes":"15","size_leaf_vector":"1"}},{"base_weights":[-1.5713952E-7,-1.05849355E-1,3.1754747E-1,-3.1754774E-1,-1.362392E-7,2.937212E-2,1.1352425E-1,-1.13524295E-1,-2.9372193E-2,-9.030819E-3,9.030748E-3],"categories":[],"categories_nodes":[],"categories_segments":[],"categories_sizes":[],"default_left":[0,0,0,0,0,0,0,0,0,0,0],"id":15,"left_children":[1,3,5,7,9,-1,-1,-1,-1,-1,-1],"loss_changes":[4.03346E-1,2.0167293E-1,3.0569136E-3,3.0567646E-3,7.2493376E-3,0E0,0E0,0E0,0E0,0E0,0E0],"parents":[2147483647,0,0,1,1,2,2,3,3,4,4],"right_children":[2,4,6,8,10,-1,-1,-1,-1,-1,-1],"split_conditions":[8E0,2E0,9E0,1E0,5E0,2.937212E-2,1.1352425E-1,-1.13524295E-1,-2.9372193E-2,-9.030819E-3,9.030748E-3],"split_indices":[0,0,0,0,0,0,0,0,0,0,0],"split_type":[0,0,0,0,0,0,0,0,0,0,0],"sum_hessian":[1E1,8E0,2E0,2E0,6E0,1E0,1E0,1E0,1E0,3E0,3E0],"tree_param":{"num_deleted":"0","num_feature":"1","num_nodes":"11","size_leaf_vector":"1"}},{"base_weights":[9.211627E-8,-2.6991555E-1,8.997197E-2,-9.649565E-2,-2.4966361E-2,1.362392E-7,2.6991558E-1,-2.3329496E-2,2.3329735E-2,2.4966288E-2,9.6495725E-2,-8.334637E-3,-1.4957428E-3,1.4958859E-3,8.334637E-3],"categories":[],"categories_nodes":[],"categories_segments":[],"categories_sizes":[],"default_left":[0,0,0,0,0,0,0,0,0,0,0,0,0,0,0],"id":16,"left_children":[1,3,5,-1,-1,7,9,11,13,-1,-1,-1,-1,-1,-1],"loss_changes":[2.9141784E-1,2.208501E-3,1.4570867E-1,0E0,0E0,4.3541677E-3,2.2087395E-3,1.8819398E-4,1.8815883E-4,0E0,0E0,0E0,0E0,0E0,0E0],"parents":[2147483647,0,0,1,1,2,2,5,5,6,6,7,7,8,8],"right_children":[2,4,6,-1,-1,8,10,12,14,-1,-1,-1,-1,-1,-1],"split_conditions":[2E0,1E0,8E0,-9.649565E-2,-2.4966361E-2,5E0,9E0,4E0,6E0,2.4966288E-2,9.6495725E-2,-8.334637E-3,-1.4957428E-3,1.4958859E-3,8.334637E-3],"split_indices":[0,0,0,0,0,0,0,0,0,0,0,0,0,0,0],"split_type":[0,0,0,0,0,0,0,0,0,0,0,0,0,0,0],"sum_hessian":[1E1,2E0,8E0,1E0,1E0,6E0,2E0,3E0,3E0,1E0,1E0,2E0,1E0,1E0,2E0],"tree_param":{"num_deleted":"0","num_feature":"1","num_nodes":"15","size_leaf_vector":"1"}},{"base_weights":[-5.9604645E-8,-2.2942819E-1,7.647599E-2,-8.20213E-2,-2.1221388E-2,-0E0,2.2942798E-1,-1.8788338E-2,1.8788338E-2,2.1221353E-2,8.202124E-2,-6.66771E-3,-1.2714387E-3,1.2714387E-3,6.66771E-3],"categories":[],"categories_nodes":[],"categories_segments":[],"categories_sizes":[],"default_left":[0,0,0,0,0,0,0,0,0,0,0,0,0,0,0],"id":17,"left_children":[1,3,5,-1,-1,7,9,11,13,-1,-1,-1,-1,-1,-1],"loss_changes":[2.1054909E-1,1.5956908E-3,1.0527439E-1,0E0,0E0,2.8240131E-3,1.5957206E-3,1.05861924E-4,1.05861924E-4,0E0,0E0,0E0,0E0,0E0,0E0],"parents":[2147483647,0,0,1,1,2,2,5,5,6,6,7,7,8,8],"right_children":[2,4,6,-1,-1,8,10,12,14,-1,-1,-1,-1,-1,-1],"split_conditions":[2E0,1E0,8E0,-8.20213E-2,-2.1221388E-2,5E0,9E0,4E0,6E0,2.1221353E-2,8.202124E-2,-6.66771E-3,-1.2714387E-3,1.2714387E-3,6.66771E-3],"split_indices":[0,0,0,0,0,0,0,0,0,0,0,0,0,0,0],"split_type":[0,0,0,0,0,0,0,0,0,0,0,0,0,0,0],"sum_hessian":[1E1,2E0,8E0,1E0,1E0,6E0,2E0,3E0,3E0,1E0,1E0,2E0,1E0,1E0,2E0],"tree_param":{"num_deleted":"0","num_feature":"1","num_nodes":"15","size_leaf_vector":"1"}},{"base_weights":[-1.6255812E-7,-6.500476E-2,1.9501369E-1,-1.9501396E-1,-1.362392E-7,1.8038178E-2,6.971798E-2,-6.971811E-2,-1.8038178E-2,-1.5136719E-2,1.513648E-2,-6.2006237E-3,-1.9209385E-3,1.9207954E-3,6.2006954E-3],"categories":[],"categories_nodes":[],"categories_segments":[],"categories_sizes":[],"default_left":[0,0,0,0,0,0,0,0,0,0,0,0,0,0,0],"id":18,"left_children":[1,3,5,7,9,-1,-1,-1,-1,11,13,-1,-1,-1,-1],"loss_changes":[1.5212157E-1,7.606077E-2,1.1528209E-3,1.1528805E-3,1.8329332E-3,0E0,0E0,0E0,0E0,6.0913153E-5,6.094342E-5,0E0,0E0,0E0,0E0],"parents":[2147483647,0,0,1,1,2,2,3,3,4,4,9,9,10,10],"right_children":[2,4,6,8,10,-1,-1,-1,-1,12,14,-1,-1,-1,-1],"split_conditions":[8E0,2E0,9E0,1E0,5E0,1.8038178E-2,6.971798E-2,-6.971811E-2,-1.8038178E-2,3E0,7E0,-6.2006237E-3,-1.9209385E-3,1.9207954E-3,6.2006954E-3],"split_indices":[0,0,0,0,0,0,0,0,0,0,0,0,0,0,0],"split_type":[0,0,0,0,0,0,0,0,0,0,0,0,0,0,0],"sum_hessian":[1E1,8E0,2E0,2E0,6E0,1E0,1E0,1E0,1E0,3E0,3E0,1E0,2E0,2E0,1E0],"tree_param":{"num_deleted":"0","num_feature":"1","num_nodes":"15","size_leaf_vector":"1"}},{"base_weights":[-1.08372085E-8,-5.5253997E-2,1.6576195E-1,-1.6576183E-1,-6.81196E-8,1.5332509E-2,5.9260372E-2,-5.9260387E-2,-1.5332437E-2,-1.2626052E-2,1.2625933E-2,-5.2705053E-3,-1.5367509E-3,1.5366555E-3,5.2705766E-3],"categories":[],"categories_nodes":[],"categories_segments":[],"categories_sizes":[],"default_left":[0,0,0,0,0,0,0,0,0,0,0,0,0,0,0],"id":19,"left_children":[1,3,5,7,9,-1,-1,-1,-1,11,13,-1,-1,-1,-1],"loss_changes":[1.09908104E-1,5.4953918E-2,8.3286315E-4,8.3298236E-4,1.2753254E-3,0E0,0E0,0E0,0E0,5.8345147E-5,5.836418E-5,0E0,0E0,0E0,0E0],"parents":[2147483647,0,0,1,1,2,2,3,3,4,4,9,9,10,10],"right_children":[2,4,6,8,10,-1,-1,-1,-1,12,14,-1,-1,-1,-1],"split_conditions":[8E0,2E0,9E0,1E0,5E0,1.5332509E-2,5.9260372E-2,-5.9260387E-2,-1.5332437E-2,3E0,7E0,-5.2705053E-3,-1.5367509E-3,1.5366555E-3,5.2705766E-3],"split_indices":[0,0,0,0,0,0,0,0,0,0,0,0,0,0,0],"split_type":[0,0,0,0,0,0,0,0,0,0,0,0,0,0,0],"sum_hessian":[1E1,8E0,2E0,2E0,6E0,1E0,1E0,1E0,1E0,3E0,3E0,1E0,2E0,2E0,1E0],"tree_param":{"num_deleted":"0","num_feature":"1","num_nodes":"15","size_leaf_vector":"1"}},{"base_weights":[-7.3151156E-8,-4.69659E-2,1.4089744E-1,-1.4089754E-1,-6.81196E-8,1.3032676E-2,5.0371174E-2,-5.037133E-2,-1.3032568E-2,-1.0540128E-2,1.0540009E-2,-3.8412574E-3,-5.62191E-4,5.62191E-4,3.8412095E-3],"categories":[],"categories_nodes":[],"categories_segments":[],"categories_sizes":[],"default_left":[0,0,0,0,0,0,0,0,0,0,0,0,0,0,0],"id":20,"left_children":[1,3,5,7,9,-1,-1,-1,-1,11,13,-1,-1,-1,-1],"loss_changes":[7.940842E-2,3.970419E-2,6.016344E-4,6.0183555E-4,8.8874425E-4,0E0,0E0,0E0,0E0,5.448822E-5,5.4486038E-5,0E0,0E0,0E0,0E0],"parents":[2147483647,0,0,1,1,2,2,3,3,4,4,9,9,10,10],"right_children":[2,4,6,8,10,-1,-1,-1,-1,12,14,-1,-1,-1,-1],"split_conditions":[8E0,2E0,9E0,1E0,5E0,1.3032676E-2,5.0371174E-2,-5.037133E-2,-1.3032568E-2,4E0,6E0,-3.8412574E-3,-5.62191E-4,5.62191E-4,3.8412095E-3],"split_indices":[0,0,0,0,0,0,0,0,0,0,0,0,0,0,0],"split_type":[0,0,0,0,0,0,0,0,0,0,0,0,0,0,0],"sum_hessian":[1E1,8E0,2E0,2E0,6E0,1E0,1E0,1E0,1E0,3E0,3E0,2E0,1E0,1E0,2E0],"tree_param":{"num_deleted":"0","num_feature":"1","num_nodes":"15","size_leaf_vector":"1"}},{"base_weights":[-8.127906E-8,-3.992101E-2,1.1976274E-1,-1.19762875E-1,-6.81196E-8,1.1077738E-2,4.2815495E-2,-4.281563E-2,-1.1077667E-2,-8.478761E-3,8.4786415E-3,-3.9037229E-3,-7.890225E-4,7.889748E-4,3.9037229E-3],"categories":[],"categories_nodes":[],"categories_segments":[],"categories_sizes":[],"default_left":[0,0,0,0,0,0,0,0,0,0,0,0,0,0,0],"id":21,"left_children":[1,3,5,7,9,-1,-1,-1,-1,11,13,-1,-1,-1,-1],"loss_changes":[5.7372525E-2,2.8686257E-2,4.3472275E-4,4.3484196E-4,5.75107E-4,0E0,0E0,0E0,0E0,7.1839924E-5,7.184551E-5,0E0,0E0,0E0,0E0],"parents":[2147483647,0,0,1,1,2,2,3,3,4,4,9,9,10,10],"right_children":[2,4,6,8,10,-1,-1,-1,-1,12,14,-1,-1,-1,-1],"split_conditions":[8E0,2E0,9E0,1E0,5E0,1.1077738E-2,4.2815495E-2,-4.281563E-2,-1.1077667E-2,3E0,7E0,-3.9037229E-3,-7.890225E-4,7.889748E-4,3.9037229E-3],"split_indices":[0,0,0,0,0,0,0,0,0,0,0,0,0,0,0],"split_type":[0,0,0,0,0,0,0,0,0,0,0,0,0,0,0],"sum_hessian":[1E1,8E0,2E0,2E0,6E0,1E0,1E0,1E0,1E0,3E0,3E0,1E0,2E0,2E0,1E0],"tree_param":{"num_deleted":"0","num_feature":"1","num_nodes":"15","size_leaf_vector":"1"}},{"base_weights":[-6.502325E-8,-1.0179845E-1,3.3932738E-2,-3.6393285E-2,-9.4160205E-3,6.81196E-8,1.0179806E-1,-7.1083307E-3,7.10845E-3,9.416056E-3,3.6393072E-2,-3.318143E-3,-6.3123705E-4,6.3123705E-4,3.3182146E-3],"categories":[],"categories_nodes":[],"categories_segments":[],"categories_sizes":[],"default_left":[0,0,0,0,0,0,0,0,0,0,0,0,0,0,0],"id":22,"left_children":[1,3,5,-1,-1,7,9,11,13,-1,-1,-1,-1,-1,-1],"loss_changes":[4.1451655E-2,3.1417236E-4,2.0725656E-2,0E0,0E0,4.042337E-4,3.140811E-4,5.583682E-5,5.5840574E-5,0E0,0E0,0E0,0E0,0E0,0E0],"parents":[2147483647,0,0,1,1,2,2,5,5,6,6,7,7,8,8],"right_children":[2,4,6,-1,-1,8,10,12,14,-1,-1,-1,-1,-1,-1],"split_conditions":[2E0,1E0,8E0,-3.6393285E-2,-9.4160205E-3,5E0,9E0,3E0,7E0,9.416056E-3,3.6393072E-2,-3.318143E-3,-6.3123705E-4,6.3123705E-4,3.3182146E-3],"split_indices":[0,0,0,0,0,0,0,0,0,0,0,0,0,0,0],"split_type":[0,0,0,0,0,0,0,0,0,0,0,0,0,0,0],"sum_hessian":[1E1,2E0,8E0,1E0,1E0,6E0,2E0,3E0,3E0,1E0,1E0,1E0,2E0,2E0,1E0],"tree_param":{"num_deleted":"0","num_feature":"1","num_nodes":"15","size_leaf_vector":"1"}},{"base_weights":[1.1920929E-7,-8.652866E-2,2.8843032E-2,-3.0934293E-2,-8.003605E-3,1.362392E-7,8.652878E-2,-5.963087E-3,5.9633255E-3,8.003712E-3,3.0934239E-2,-2.8203966E-3,-5.0497055E-4,5.0497055E-4,2.8205395E-3],"categories":[],"categories_nodes":[],"categories_segments":[],"categories_sizes":[],"default_left":[0,0,0,0,0,0,0,0,0,0,0,0,0,0,0],"id":23,"left_children":[1,3,5,-1,-1,7,9,11,13,-1,-1,-1,-1,-1,-1],"loss_changes":[2.9948909E-2,2.2700056E-4,1.4974404E-2,0E0,0E0,2.8447865E-4,2.2689998E-4,4.3035892E-5,4.304247E-5,0E0,0E0,0E0,0E0,0E0,0E0],"parents":[2147483647,0,0,1,1,2,2,5,5,6,6,7,7,8,8],"right_children":[2,4,6,-1,-1,8,10,12,14,-1,-1,-1,-1,-1,-1],"split_conditions":[2E0,1E0,8E0,-3.0934293E-2,-8.003605E-3,5E0,9E0,3E0,7E0,8.003712E-3,3.0934239E-2,-2.8203966E-3,-5.0497055E-4,5.0497055E-4,2.8205395E-3],"split_indices":[0,0,0,0,0,0,0,0,0,0,0,0,0,0,0],"split_type":[0,0,0,0,0,0,0,0,0,0,0,0,0,0,0],"sum_hessian":[1E1,2E0,8E0,1E0,1E0,6E0,2E0,3E0,3E0,1E0,1E0,1E0,2E0,2E0,1E0],"tree_param":{"num_deleted":"0","num_feature":"1","num_nodes":"15","size_leaf_vector":"1"}},{"base_weights":[1.5849417E-7,-2.451644E-2,7.3549904E-2,-7.354932E-2,-0E0,6.8032267E-3,2.6294233E-2,-2.629415E-2,-6.803048E-3,-5.005598E-3,5.005598E-3,-2.3973228E-3,-4.0402412E-4,4.0397645E-4,2.3973943E-3],"categories":[],"categories_nodes":[],"categories_segments":[],"categories_sizes":[],"default_left":[0,0,0,0,0,0,0,0,0,0,0,0,0,0,0],"id":24,"left_children":[1,3,5,7,9,-1,-1,-1,-1,11,13,-1,-1,-1,-1],"loss_changes":[2.163827E-2,1.0819007E-2,1.6391091E-4,1.6401708E-4,2.0044809E-4,0E0,0E0,0E0,0E0,3.293171E-5,3.2938056E-5,0E0,0E0,0E0,0E0],"parents":[2147483647,0,0,1,1,2,2,3,3,4,4,9,9,10,10],"right_children":[2,4,6,8,10,-1,-1,-1,-1,12,14,-1,-1,-1,-1],"split_conditions":[8E0,2E0,9E0,1E0,5E0,6.8032267E-3,2.6294233E-2,-2.629415E-2,-6.803048E-3,3E0,7E0,-2.3973228E-3,-4.0402412E-4,4.0397645E-4,2.3973943E-3],"split_indices":[0,0,0,0,0,0,0,0,0,0,0,0,0,0,0],"split_type":[0,0,0,0,0,0,0,0,0,0,0,0,0,0,0],"sum_hessian":[1E1,8E0,2E0,2E0,6E0,1E0,1E0,1E0,1E0,3E0,3E0,1E0,2E0,2E0,1E0],"tree_param":{"num_deleted":"0","num_feature":"1","num_nodes":"15","size_leaf_vector":"1"}},{"base_weights":[2.1674417E-8,-2.0839028E-2,6.2517166E-2,-6.251693E-2,-6.81196E-8,5.7826997E-3,2.2350026E-2,-2.2350026E-2,-5.7825926E-3,-4.204154E-3,4.204035E-3,-2.0376921E-3,-3.2320022E-4,3.2310488E-4,2.0377636E-3],"categories":[],"categories_nodes":[],"categories_segments":[],"categories_sizes":[],"default_left":[0,0,0,0,0,0,0,0,0,0,0,0,0,0,0],"id":25,"left_children":[1,3,5,7,9,-1,-1,-1,-1,11,13,-1,-1,-1,-1],"loss_changes":[1.5633576E-2,7.816712E-3,1.18439086E-4,1.18501484E-4,1.4139529E-4,0E0,0E0,0E0,0E0,2.5053167E-5,2.5061607E-5,0E0,0E0,0E0,0E0],"parents":[2147483647,0,0,1,1,2,2,3,3,4,4,9,9,10,10],"right_children":[2,4,6,8,10,-1,-1,-1,-1,12,14,-1,-1,-1,-1],"split_conditions":[8E0,2E0,9E0,1E0,5E0,5.7826997E-3,2.2350026E-2,-2.2350026E-2,-5.7825926E-3,3E0,7E0,-2.0376921E-3,-3.2320022E-4,3.2310488E-4,2.0377636E-3],"split_indices":[0,0,0,0,0,0,0,0,0,0,0,0,0,0,0],"split_type":[0,0,0,0,0,0,0,0,0,0,0,0,0,0,0],"sum_hessian":[1E1,8E0,2E0,2E0,6E0,1E0,1E0,1E0,1E0,3E0,3E0,1E0,2E0,2E0,1E0],"tree_param":{"num_deleted":"0","num_feature":"1","num_nodes":"15","size_leaf_vector":"1"}},{"base_weights":[-9.076162E-8,-1.7713234E-2,5.313937E-2,-5.3139385E-2,-1.362392E-7,4.9152374E-3,1.899748E-2,-1.8997522E-2,-4.915202E-3,-3.533125E-3,3.5328865E-3,-1.7320634E-3,-2.585411E-4,2.5844574E-4,1.7320634E-3],"categories":[],"categories_nodes":[],"categories_segments":[],"categories_sizes":[],"default_left":[0,0,0,0,0,0,0,0,0,0,0,0,0,0,0],"id":26,"left_children":[1,3,5,7,9,-1,-1,-1,-1,11,13,-1,-1,-1,-1],"loss_changes":[1.1295206E-2,5.647554E-3,8.55932E-5,8.561835E-5,9.985703E-5,0E0,0E0,0E0,0E0,1.8963856E-5,1.8968953E-5,0E0,0E0,0E0,0E0],"parents":[2147483647,0,0,1,1,2,2,3,3,4,4,9,9,10,10],"right_children":[2,4,6,8,10,-1,-1,-1,-1,12,14,-1,-1,-1,-1],"split_conditions":[8E0,2E0,9E0,1E0,5E0,4.9152374E-3,1.899748E-2,-1.8997522E-2,-4.915202E-3,3E0,7E0,-1.7320634E-3,-2.585411E-4,2.5844574E-4,1.7320634E-3],"split_indices":[0,0,0,0,0,0,0,0,0,0,0,0,0,0,0],"split_type":[0,0,0,0,0,0,0,0,0,0,0,0,0,0,0],"sum_hessian":[1E1,8E0,2E0,2E0,6E0,1E0,1E0,1E0,1E0,3E0,3E0,1E0,2E0,2E0,1E0],"tree_param":{"num_deleted":"0","num_feature":"1","num_nodes":"15","size_leaf_vector":"1"}},{"base_weights":[-6.0959295E-8,-1.5056261E-2,4.516856E-2,-4.5168463E-2,-1.362392E-7,4.177952E-3,1.61479E-2,-1.6147893E-2,-4.1779163E-3,-3.8696926E-3,2.3216247E-3,-1.4722825E-3,-2.6907923E-4,1.3446808E-4,1.4722825E-3],"categories":[],"categories_nodes":[],"categories_segments":[],"categories_sizes":[],"default_left":[0,0,0,0,0,0,0,0,0,0,0,0,0,0,0],"id":27,"left_children":[1,3,5,7,9,-1,-1,-1,-1,11,13,-1,-1,-1,-1],"loss_changes":[8.160815E-3,4.0803514E-3,6.184727E-5,6.186124E-5,7.187327E-5,0E0,0E0,0E0,0E0,4.854639E-6,2.2023156E-5,0E0,0E0,0E0,0E0],"parents":[2147483647,0,0,1,1,2,2,3,3,4,4,9,9,10,10],"right_children":[2,4,6,8,10,-1,-1,-1,-1,12,14,-1,-1,-1,-1],"split_conditions":[8E0,2E0,9E0,1E0,4E0,4.177952E-3,1.61479E-2,-1.6147893E-2,-4.1779163E-3,3E0,7E0,-1.4722825E-3,-2.6907923E-4,1.3446808E-4,1.4722825E-3],"split_indices":[0,0,0,0,0,0,0,0,0,0,0,0,0,0,0],"split_type":[0,0,0,0,0,0,0,0,0,0,0,0,0,0,0],"sum_hessian":[1E1,8E0,2E0,2E0,6E0,1E0,1E0,1E0,1E0,2E0,4E0,1E0,1E0,3E0,1E0],"tree_param":{"num_deleted":"0","num_feature":"1","num_nodes":"15","size_leaf_vector":"1"}},{"base_weights":[-1.2281266E-5,-1.28127895E-2,3.8393337E-2,-3.839323E-2,-1.9345965E-5,3.551245E-3,1.37257585E-2,-1.3725709E-2,-3.551245E-3,-2.027321E-3,3.3337276E-3,-1.2514115E-3,-1.3453962E-4,2.4876595E-4,1.2514115E-3],"categories":[],"categories_nodes":[],"categories_segments":[],"categories_sizes":[],"default_left":[0,0,0,0,0,0,0,0,0,0,0,0,0,0,0],"id":28,"left_children":[1,3,5,7,9,-1,-1,-1,-1,11,13,-1,-1,-1,-1],"loss_changes":[5.899652E-3,2.9446147E-3,4.4693705E-5,4.4689048E-5,5.3888747E-5,0E0,0E0,0E0,0E0,1.5055015E-5,2.834673E-6,0E0,0E0,0E0,0E0],"parents":[2147483647,0,0,1,1,2,2,3,3,4,4,9,9,10,10],"right_children":[2,4,6,8,10,-1,-1,-1,-1,12,14,-1,-1,-1,-1],"split_conditions":[8E0,2E0,9E0,1E0,6E0,3.551245E-3,1.37257585E-2,-1.3725709E-2,-3.551245E-3,3E0,7E0,-1.2514115E-3,-1.3453962E-4,2.4876595E-4,1.2514115E-3],"split_indices":[0,0,0,0,0,0,0,0,0,0,0,0,0,0,0],"split_type":[0,0,0,0,0,0,0,0,0,0,0,0,0,0,0],"sum_hessian":[1E1,8E0,2E0,2E0,6E0,1E0,1E0,1E0,1E0,4E0,2E0,1E0,3E0,1E0,1E0],"tree_param":{"num_deleted":"0","num_feature":"1","num_nodes":"15","size_leaf_vector":"1"}},{"base_weights":[1.7813661E-6,-3.2634243E-2,1.0880258E-2,-1.1666852E-2,-3.0185583E-3,2.7247838E-6,3.263442E-2,-1.6963959E-3,2.8336842E-3,3.0185224E-3,1.1666966E-2,-1.0637284E-3,-1.0428429E-4,2.1142961E-4,1.0637284E-3],"categories":[],"categories_nodes":[],"categories_segments":[],"categories_sizes":[],"default_left":[0,0,0,0,0,0,0,0,0,0,0,0,0,0,0],"id":29,"left_children":[1,3,5,-1,-1,7,9,11,13,-1,-1,-1,-1,-1,-1],"loss_changes":[4.2604017E-3,3.228779E-5,2.1295955E-3,0E0,0E0,3.8478043E-5,3.2307813E-5,1.1239392E-5,2.0489333E-6,0E0,0E0,0E0,0E0,0E0,0E0],"parents":[2147483647,0,0,1,1,2,2,5,5,6,6,7,7,8,8],"right_children":[2,4,6,-1,-1,8,10,12,14,-1,-1,-1,-1,-1,-1],"split_conditions":[2E0,1E0,8E0,-1.1666852E-2,-3.0185583E-3,6E0,9E0,3E0,7E0,3.0185224E-3,1.1666966E-2,-1.0637284E-3,-1.0428429E-4,2.1142961E-4,1.0637284E-3],"split_indices":[0,0,0,0,0,0,0,0,0,0,0,0,0,0,0],"split_type":[0,0,0,0,0,0,0,0,0,0,0,0,0,0,0],"sum_hessian":[1E1,2E0,8E0,1E0,1E0,6E0,2E0,4E0,2E0,1E0,1E0,1E0,3E0,1E0,1E0],"tree_param":{"num_deleted":"0","num_feature":"1","num_nodes":"15","size_leaf_vector":"1"}},{"base_weights":[1.0956417E-5,-2.7739087E-2,9.259754E-3,-9.916824E-3,-2.5657655E-3,1.7166138E-5,2.7739206E-2,-2.4379094E-3,1.4867783E-3,2.5657655E-3,9.916878E-3,-9.041548E-4,-1.9290448E-4,1.054287E-4,9.042263E-4],"categories":[],"categories_nodes":[],"categories_segments":[],"categories_sizes":[],"default_left":[0,0,0,0,0,0,0,0,0,0,0,0,0,0,0],"id":30,"left_children":[1,3,5,-1,-1,7,9,11,13,-1,-1,-1,-1,-1,-1],"loss_changes":[3.080057E-3,2.3330096E-5,1.5367055E-3,0E0,0E0,2.8880691E-5,2.3334054E-5,1.1633038E-6,7.610909E-6,0E0,0E0,0E0,0E0,0E0,0E0],"parents":[2147483647,0,0,1,1,2,2,5,5,6,6,7,7,8,8],"right_children":[2,4,6,-1,-1,8,10,12,14,-1,-1,-1,-1,-1,-1],"split_conditions":[2E0,1E0,8E0,-9.916824E-3,-2.5657655E-3,4E0,9E0,3E0,7E0,2.5657655E-3,9.916878E-3,-9.041548E-4,-1.9290448E-4,1.054287E-4,9.042263E-4],"split_indices":[0,0,0,0,0,0,0,0,0,0,0,0,0,0,0],"split_type":[0,0,0,0,0,0,0,0,0,0,0,0,0,0,0],"sum_hessian":[1E1,2E0,8E0,1E0,1E0,6E0,2E0,2E0,4E0,1E0,1E0,1E0,1E0,3E0,1E0],"tree_param":{"num_deleted":"0","num_feature":"1","num_nodes":"15","size_leaf_vector":"1"}},{"base_weights":[-2.672049E-7,-7.8598745E-3,2.3578644E-2,-2.3578193E-2,-6.1307634E-7,2.180958E-3,8.429432E-3,-8.429301E-3,-2.1808865E-3,-1.6232729E-3,1.6222E-3,-7.6854235E-4,-1.3694764E-4,1.364708E-4,7.686138E-4],"categories":[],"categories_nodes":[],"categories_segments":[],"categories_sizes":[],"default_left":[0,0,0,0,0,0,0,0,0,0,0,0,0,0,0],"id":31,"left_children":[1,3,5,7,9,-1,-1,-1,-1,11,13,-1,-1,-1,-1],"loss_changes":[2.2238558E-3,1.1117948E-3,1.6851583E-5,1.6859267E-5,2.106619E-5,0E0,0E0,0E0,0E0,3.2108119E-6,3.2228372E-6,0E0,0E0,0E0,0E0],"parents":[2147483647,0,0,1,1,2,2,3,3,4,4,9,9,10,10],"right_children":[2,4,6,8,10,-1,-1,-1,-1,12,14,-1,-1,-1,-1],"split_conditions":[8E0,2E0,9E0,1E0,5E0,2.180958E-3,8.429432E-3,-8.429301E-3,-2.1808865E-3,3E0,7E0,-7.6854235E-4,-1.3694764E-4,1.364708E-4,7.686138E-4],"split_indices":[0,0,0,0,0,0,0,0,0,0,0,0,0,0,0],"split_type":[0,0,0,0,0,0,0,0,0,0,0,0,0,0,0],"sum_hessian":[1E1,8E0,2E0,2E0,6E0,1E0,1E0,1E0,1E0,3E0,3E0,1E0,2E0,2E0,1E0],"tree_param":{"num_deleted":"0","num_feature":"1","num_nodes":"15","size_leaf_vector":"1"}},{"base_weights":[-9.279359E-8,-6.680814E-3,2.00421E-2,-2.0041488E-2,-4.0871757E-7,1.8537999E-3,7.165146E-3,-7.164906E-3,-1.8537642E-3,-1.0627747E-3,5.3110125E-4,-6.532431E-4,-7.191897E-5],"categories":[],"categories_nodes":[],"categories_segments":[],"categories_sizes":[],"default_left":[0,0,0,0,0,0,0,0,0,0,0,0,0],"id":32,"left_children":[1,3,5,7,9,-1,-1,-1,-1,11,-1,-1,-1],"loss_changes":[1.6067569E-3,8.0328423E-4,1.2184493E-5,1.2178789E-5,1.5049733E-5,0E0,0E0,0E0,0E0,4.065243E-6,0E0,0E0,0E0],"parents":[2147483647,0,0,1,1,2,2,3,3,4,4,9,9],"right_children":[2,4,6,8,10,-1,-1,-1,-1,12,-1,-1,-1],"split_conditions":[8E0,2E0,9E0,1E0,6E0,1.8537999E-3,7.165146E-3,-7.164906E-3,-1.8537642E-3,3E0,5.3110125E-4,-6.532431E-4,-7.191897E-5],"split_indices":[0,0,0,0,0,0,0,0,0,0,0,0,0],"split_type":[0,0,0,0,0,0,0,0,0,0,0,0,0],"sum_hessian":[1E1,8E0,2E0,2E0,6E0,1E0,1E0,1E0,1E0,4E0,2E0,1E0,3E0],"tree_param":{"num_deleted":"0","num_feature":"1","num_nodes":"13","size_leaf_vector":"1"}},{"base_weights":[-1.7848542E-5,-5.7003098E-3,1.7035484E-2,-1.7035285E-2,-2.8133392E-5,1.5757085E-3,6.0902596E-3,-6.09017E-3,-1.5757085E-3,-4.5857433E-4,8.7776186E-4,4.234314E-5,5.736351E-4],"categories":[],"categories_nodes":[],"categories_segments":[],"categories_sizes":[],"default_left":[0,0,0,0,0,0,0,0,0,0,0,0,0],"id":33,"left_children":[1,3,5,7,9,-1,-1,-1,-1,-1,11,-1,-1],"loss_changes":[1.1630615E-3,5.7816645E-4,8.801697E-6,8.797739E-6,1.0856468E-5,0E0,0E0,0E0,0E0,0E0,3.5397397E-6,0E0,0E0],"parents":[2147483647,0,0,1,1,2,2,3,3,4,4,10,10],"right_children":[2,4,6,8,10,-1,-1,-1,-1,-1,12,-1,-1],"split_conditions":[8E0,2E0,9E0,1E0,4E0,1.5757085E-3,6.0902596E-3,-6.09017E-3,-1.5757085E-3,-4.5857433E-4,7E0,4.234314E-5,5.736351E-4],"split_indices":[0,0,0,0,0,0,0,0,0,0,0,0,0],"split_type":[0,0,0,0,0,0,0,0,0,0,0,0,0],"sum_hessian":[1E1,8E0,2E0,2E0,6E0,1E0,1E0,1E0,1E0,2E0,4E0,3E0,1E0],"tree_param":{"num_deleted":"0","num_feature":"1","num_nodes":"13","size_leaf_vector":"1"}},{"base_weights":[1.9405377E-6,-1.4479992E-2,4.829036E-3,-5.176645E-3,-1.3393522E-3,2.9291425E-6,1.4480273E-2,-3.6683082E-4,7.377624E-4,1.339388E-3,5.176735E-3,3.2901764E-5,4.8751832E-4],"categories":[],"categories_nodes":[],"categories_segments":[],"categories_sizes":[],"default_left":[0,0,0,0,0,0,0,0,0,0,0,0,0],"id":34,"left_children":[1,3,5,-1,-1,7,9,-1,11,-1,-1,-1,-1],"loss_changes":[8.388868E-4,6.356335E-6,4.1915866E-4,0E0,0E0,7.2069024E-6,6.354996E-6,0E0,2.6082919E-6,0E0,0E0,0E0,0E0],"parents":[2147483647,0,0,1,1,2,2,5,5,6,6,8,8],"right_children":[2,4,6,-1,-1,8,10,-1,12,-1,-1,-1,-1],"split_conditions":[2E0,1E0,8E0,-5.176645E-3,-1.3393522E-3,4E0,9E0,-3.6683082E-4,7E0,1.339388E-3,5.176735E-3,3.2901764E-5,4.8751832E-4],"split_indices":[0,0,0,0,0,0,0,0,0,0,0,0,0],"split_type":[0,0,0,0,0,0,0,0,0,0,0,0,0],"sum_hessian":[1E1,2E0,8E0,1E0,1E0,6E0,2E0,2E0,4E0,1E0,1E0,3E0,1E0],"tree_param":{"num_deleted":"0","num_feature":"1","num_nodes":"13","size_leaf_vector":"1"}},{"base_weights":[1.534447E-5,-1.2307965E-2,4.1214097E-3,-4.400148E-3,-1.1384368E-3,2.3909977E-5,1.2308438E-2,-4.3144228E-4,5.072753E-4,1.1385442E-3,4.4002533E-3,1.6851427E-5,4.144192E-4],"categories":[],"categories_nodes":[],"categories_segments":[],"categories_sizes":[],"default_left":[0,0,0,0,0,0,0,0,0,0,0,0,0],"id":35,"left_children":[1,3,5,-1,-1,7,9,-1,11,-1,-1,-1,-1],"loss_changes":[6.0732965E-4,4.593894E-6,3.0162284E-4,0E0,0E0,5.6764657E-6,4.5850466E-6,0E0,2.2883237E-6,0E0,0E0,0E0,0E0],"parents":[2147483647,0,0,1,1,2,2,5,5,6,6,8,8],"right_children":[2,4,6,-1,-1,8,10,-1,12,-1,-1,-1,-1],"split_conditions":[2E0,1E0,8E0,-4.400148E-3,-1.1384368E-3,3E0,9E0,-4.3144228E-4,7E0,1.1385442E-3,4.4002533E-3,1.6851427E-5,4.144192E-4],"split_indices":[0,0,0,0,0,0,0,0,0,0,0,0,0],"split_type":[0,0,0,0,0,0,0,0,0,0,0,0,0],"sum_hessian":[1E1,2E0,8E0,1E0,1E0,6E0,2E0,1E0,5E0,1E0,1E0,4E0,1E0],"tree_param":{"num_deleted":"0","num_feature":"1","num_nodes":"13","size_leaf_vector":"1"}},{"base_weights":[1.063164E-5,-1.0461766E-2,3.5002497E-3,-3.7401256E-3,-9.6766953E-4,1.6553062E-5,1.0462125E-2,-3.6671164E-4,4.2676926E-4,9.6774107E-4,3.7402154E-3,1.27601625E-5,3.5219194E-4],"categories":[],"categories_nodes":[],"categories_segments":[],"categories_sizes":[],"default_left":[0,0,0,0,0,0,0,0,0,0,0,0,0],"id":36,"left_children":[1,3,5,-1,-1,7,9,-1,11,-1,-1,-1,-1],"loss_changes":[4.3861015E-4,3.3192628E-6,2.1810437E-4,0E0,0E0,4.0792606E-6,3.3147808E-6,0E0,1.6726792E-6,0E0,0E0,0E0,0E0],"parents":[2147483647,0,0,1,1,2,2,5,5,6,6,8,8],"right_children":[2,4,6,-1,-1,8,10,-1,12,-1,-1,-1,-1],"split_conditions":[2E0,1E0,8E0,-3.7401256E-3,-9.6766953E-4,3E0,9E0,-3.6671164E-4,7E0,9.6774107E-4,3.7402154E-3,1.27601625E-5,3.5219194E-4],"split_indices":[0,0,0,0,0,0,0,0,0,0,0,0,0],"split_type":[0,0,0,0,0,0,0,0,0,0,0,0,0],"sum_hessian":[1E1,2E0,8E0,1E0,1E0,6E0,2E0,1E0,5E0,1E0,1E0,4E0,1E0],"tree_param":{"num_deleted":"0","num_feature":"1","num_nodes":"13","size_leaf_vector":"1"}},{"base_weights":[7.385388E-6,-8.8924775E-3,2.9731856E-3,-3.1791066E-3,-8.2250836E-4,1.1512211E-5,8.892695E-3,-3.1170846E-4,3.5977364E-4,8.2254416E-4,3.1791688E-3,9.756088E-6,2.9940606E-4],"categories":[],"categories_nodes":[],"categories_segments":[],"categories_sizes":[],"default_left":[0,0,0,0,0,0,0,0,0,0,0,0,0],"id":37,"left_children":[1,3,5,-1,-1,7,9,-1,11,-1,-1,-1,-1],"loss_changes":[3.1678632E-4,2.3990433E-6,1.5768253E-4,0E0,0E0,2.9348537E-6,2.3975153E-6,0E0,1.220754E-6,0E0,0E0,0E0,0E0],"parents":[2147483647,0,0,1,1,2,2,5,5,6,6,8,8],"right_children":[2,4,6,-1,-1,8,10,-1,12,-1,-1,-1,-1],"split_conditions":[2E0,1E0,8E0,-3.1791066E-3,-8.2250836E-4,3E0,9E0,-3.1170846E-4,7E0,8.2254416E-4,3.1791688E-3,9.756088E-6,2.9940606E-4],"split_indices":[0,0,0,0,0,0,0,0,0,0,0,0,0],"split_type":[0,0,0,0,0,0,0,0,0,0,0,0,0],"sum_hessian":[1E1,2E0,8E0,1E0,1E0,6E0,2E0,1E0,5E0,1E0,1E0,4E0,1E0],"tree_param":{"num_deleted":"0","num_feature":"1","num_nodes":"13","size_leaf_vector":"1"}},{"base_weights":[4.960901E-6,-7.5585935E-3,2.5255946E-3,-2.7022404E-3,-6.9912674E-4,7.833753E-6,7.5585046E-3,-1.5345812E-4,1.5757084E-4,6.99091E-4,2.7022362E-3],"categories":[],"categories_nodes":[],"categories_segments":[],"categories_sizes":[],"default_left":[0,0,0,0,0,0,0,0,0,0,0],"id":38,"left_children":[1,3,5,-1,-1,7,9,-1,-1,-1,-1],"loss_changes":[2.2880438E-4,1.7336861E-6,1.1398577E-4,0E0,0E0,2.1497021E-6,1.7361017E-6,0E0,0E0,0E0,0E0],"parents":[2147483647,0,0,1,1,2,2,5,5,6,6],"right_children":[2,4,6,-1,-1,8,10,-1,-1,-1,-1],"split_conditions":[2E0,1E0,8E0,-2.7022404E-3,-6.9912674E-4,5E0,9E0,-1.5345812E-4,1.5757084E-4,6.99091E-4,2.7022362E-3],"split_indices":[0,0,0,0,0,0,0,0,0,0,0],"split_type":[0,0,0,0,0,0,0,0,0,0,0],"sum_hessian":[1E1,2E0,8E0,1E0,1E0,6E0,2E0,3E0,3E0,1E0,1E0],"tree_param":{"num_deleted":"0","num_feature":"1","num_nodes":"11","size_leaf_vector":"1"}},{"base_weights":[3.8775192E-6,-6.4248326E-3,2.14635E-3,-2.2969046E-3,-5.9427024E-4,6.198883E-6,6.424586E-3,-2.418995E-4,8.280277E-5,5.942345E-4,2.2968294E-3],"categories":[],"categories_nodes":[],"categories_segments":[],"categories_sizes":[],"default_left":[0,0,0,0,0,0,0,0,0,0,0],"id":39,"left_children":[1,3,5,-1,-1,7,9,-1,-1,-1,-1],"loss_changes":[1.6529662E-4,1.2518431E-6,8.2364815E-5,0E0,0E0,1.757159E-6,1.2527307E-6,0E0,0E0,0E0,0E0],"parents":[2147483647,0,0,1,1,2,2,5,5,6,6],"right_children":[2,4,6,-1,-1,8,10,-1,-1,-1,-1],"split_conditions":[2E0,1E0,8E0,-2.2969046E-3,-5.9427024E-4,3E0,9E0,-2.418995E-4,8.280277E-5,5.942345E-4,2.2968294E-3],"split_indices":[0,0,0,0,0,0,0,0,0,0,0],"split_type":[0,0,0,0,0,0,0,0,0,0,0],"sum_hessian":[1E1,2E0,8E0,1E0,1E0,6E0,2E0,1E0,5E0,1E0,1E0],"tree_param":{"num_deleted":"0","num_feature":"1","num_nodes":"11","size_leaf_vector":"1"}},{"base_weights":[-1.1794947E-5,-2.246147E-3,4.459858E-3,-1.6383217E-3,-7.929802E-5,4.823685E-4,1.9523621E-3],"categories":[],"categories_nodes":[],"categories_segments":[],"categories_sizes":[],"default_left":[0,0,0,0,0,0,0],"id":40,"left_children":[1,3,5,-1,-1,-1,-1],"loss_changes":[1.1992121E-4,4.952772E-5,1.2899487E-5,0E0,0E0,0E0,0E0],"parents":[2147483647,0,0,1,1,2,2],"right_children":[2,4,6,-1,-1,-1,-1],"split_conditions":[7E0,2E0,9E0,-1.6383217E-3,-7.929802E-5,4.823685E-4,1.9523621E-3],"split_indices":[0,0,0,0,0,0,0],"split_type":[0,0,0,0,0,0,0],"sum_hessian":[1E1,7E0,3E0,2E0,5E0,2E0,1E0],"tree_param":{"num_deleted":"0","num_feature":"1","num_nodes":"7","size_leaf_vector":"1"}},{"base_weights":[5.677461E-5,-1.4803295E-3,1.3947487E-3,-1.7066207E-3,-2.4318695E-4,-3.0207637E-4,5.3763393E-5],"categories":[],"categories_nodes":[],"categories_segments":[],"categories_sizes":[],"default_left":[0,0,0,0,0,0,0],"id":41,"left_children":[1,3,-1,-1,5,-1,-1],"loss_changes":[8.453105E-5,4.547416E-5,0E0,0E0,2.7612514E-6,0E0,0E0],"parents":[2147483647,0,0,1,1,4,4],"right_children":[2,4,-1,-1,6,-1,-1],"split_conditions":[8E0,1E0,1.3947487E-3,-1.7066207E-3,3E0,-3.0207637E-4,5.3763393E-5],"split_indices":[0,0,0,0,0,0,0],"split_type":[0,0,0,0,0,0,0],"sum_hessian":[1E1,8E0,2E0,1E0,7E0,2E0,5E0],"tree_param":{"num_deleted":"0","num_feature":"1","num_nodes":"7","size_leaf_vector":"1"}},{"base_weights":[-1.1042776E-5,-9.789821E-4,1.4502526E-3,-1.4506276E-3,-1.3218985E-5,-3.6127228E-4,2.409935E-4,-2.4163723E-4,-6.7520145E-6],"categories":[],"categories_nodes":[],"categories_segments":[],"categories_sizes":[],"default_left":[0,0,0,0,0,0,0,0,0],"id":42,"left_children":[1,3,-1,-1,5,7,-1,-1,-1],"loss_changes":[5.6321212E-5,3.7180183E-5,0E0,0E0,2.8479797E-6,1.0351941E-6,0E0,0E0,0E0],"parents":[2147483647,0,0,1,1,4,4,5,5],"right_children":[2,4,-1,-1,6,8,-1,-1,-1],"split_conditions":[9E0,1E0,1.4502526E-3,-1.4506276E-3,7E0,3E0,2.409935E-4,-2.4163723E-4,-6.7520145E-6],"split_indices":[0,0,0,0,0,0,0,0,0],"split_type":[0,0,0,0,0,0,0,0,0],"sum_hessian":[1E1,9E0,1E0,1E0,8E0,6E0,2E0,2E0,4E0],"tree_param":{"num_deleted":"0","num_feature":"1","num_nodes":"9","size_leaf_vector":"1"}},{"base_weights":[-8.455393E-6,-8.3117746E-4,1.2328149E-3,-1.2330334E-3,-1.0172526E-5,-8.6525506E-5,1.927376E-4],"categories":[],"categories_nodes":[],"categories_segments":[],"categories_sizes":[],"default_left":[0,0,0,0,0,0,0],"id":43,"left_children":[1,3,-1,-1,5,-1,-1],"loss_changes":[4.068182E-5,2.6878393E-5,0E0,0E0,1.819624E-6,0E0,0E0],"parents":[2147483647,0,0,1,1,4,4],"right_children":[2,4,-1,-1,6,-1,-1],"split_conditions":[9E0,1E0,1.2328149E-3,-1.2330334E-3,7E0,-8.6525506E-5,1.927376E-4],"split_indices":[0,0,0,0,0,0,0],"split_type":[0,0,0,0,0,0,0],"sum_hessian":[1E1,9E0,1E0,1E0,8E0,6E0,2E0],"tree_param":{"num_deleted":"0","num_feature":"1","num_nodes":"7","size_leaf_vector":"1"}},{"base_weights":[3.7845139E-6,-1.0480783E-3,7.0288184E-4,4.6888986E-6,1.0479927E-3,-1.7602445E-4,7.724762E-5],"categories":[],"categories_nodes":[],"categories_segments":[],"categories_sizes":[],"default_left":[0,0,0,0,0,0,0],"id":44,"left_children":[1,-1,3,5,-1,-1,-1],"loss_changes":[2.9350671E-5,0E0,1.9466186E-5,1.4967372E-6,0E0,0E0,0E0],"parents":[2147483647,0,0,2,2,3,3],"right_children":[2,-1,4,6,-1,-1,-1],"split_conditions":[1E0,-1.0480783E-3,9E0,3E0,1.0479927E-3,-1.7602445E-4,7.724762E-5],"split_indices":[0,0,0,0,0,0,0],"split_type":[0,0,0,0,0,0,0],"sum_hessian":[1E1,1E0,9E0,8E0,1E0,2E0,6E0],"tree_param":{"num_deleted":"0","num_feature":"1","num_nodes":"7","size_leaf_vector":"1"}},{"base_weights":[-6.316653E-6,-7.763819E-4,2.3059845E-3,-8.9086656E-4,-3.9312246E-5,1.4677049E-4,8.9092256E-4],"categories":[],"categories_nodes":[],"categories_segments":[],"categories_sizes":[],"default_left":[0,0,0,0,0,0,0],"id":45,"left_children":[1,3,5,-1,-1,-1,-1],"loss_changes":[2.1377175E-5,1.234897E-5,2.164741E-6,0E0,0E0,0E0,0E0],"parents":[2147483647,0,0,1,1,2,2],"right_children":[2,4,6,-1,-1,-1,-1],"split_conditions":[8E0,1E0,9E0,-8.9086656E-4,-3.9312246E-5,1.4677049E-4,8.9092256E-4],"split_indices":[0,0,0,0,0,0,0],"split_type":[0,0,0,0,0,0,0],"sum_hessian":[1E1,8E0,2E0,1E0,7E0,1E0,1E0],"tree_param":{"num_deleted":"0","num_feature":"1","num_nodes":"7","size_leaf_vector":"1"}},{"base_weights":[5.248045E-6,-1.9772744E-3,6.655057E-4,-7.572366E-4,-1.325369E-4,3.527999E-5,7.573128E-4],"categories":[],"categories_nodes":[],"categories_segments":[],"categories_sizes":[],"default_left":[0,0,0,0,0,0,0],"id":46,"left_children":[1,3,5,-1,-1,-1,-1],"loss_changes":[1.5714619E-5,1.4038978E-6,8.869505E-6,0E0,0E0,0E0,0E0],"parents":[2147483647,0,0,1,1,2,2],"right_children":[2,4,6,-1,-1,-1,-1],"split_conditions":[2E0,1E0,9E0,-7.572366E-4,-1.325369E-4,3.527999E-5,7.573128E-4],"split_indices":[0,0,0,0,0,0,0],"split_type":[0,0,0,0,0,0,0],"sum_hessian":[1E1,2E0,8E0,1E0,1E0,7E0,1E0],"tree_param":{"num_deleted":"0","num_feature":"1","num_nodes":"7","size_leaf_vector":"1"}},{"base_weights":[-5.153939E-6,-5.716162E-4,5.087853E-4,-6.436511E-4,-3.2007694E-5],"categories":[],"categories_nodes":[],"categories_segments":[],"categories_sizes":[],"default_left":[0,0,0,0,0],"id":47,"left_children":[1,3,-1,-1,-1],"loss_changes":[1.1569161E-5,6.3567322E-6,0E0,0E0,0E0],"parents":[2147483647,0,0,1,1],"right_children":[2,4,-1,-1,-1],"split_conditions":[8E0,1E0,5.087853E-4,-6.436511E-4,-3.2007694E-5],"split_indices":[0,0,0,0,0],"split_type":[0,0,0,0,0],"sum_hessian":[1E1,8E0,2E0,1E0,7E0],"tree_param":{"num_deleted":"0","num_feature":"1","num_nodes":"5","size_leaf_vector":"1"}},{"base_weights":[-1.872932E-5,-3.988295E-4,5.673409E-4,-5.4710347E-4,-1.1364619E-5],"categories":[],"categories_nodes":[],"categories_segments":[],"categories_sizes":[],"default_left":[0,0,0,0,0],"id":48,"left_children":[1,3,-1,-1,-1],"loss_changes":[8.739583E-6,5.07387E-6,0E0,0E0,0E0],"parents":[2147483647,0,0,1,1],"right_children":[2,4,-1,-1,-1],"split_conditions":[9E0,1E0,5.673409E-4,-5.4710347E-4,-1.1364619E-5],"split_indices":[0,0,0,0,0],"split_type":[0,0,0,0,0],"sum_hessian":[1E1,9E0,1E0,1E0,8E0],"tree_param":{"num_deleted":"0","num_feature":"1","num_nodes":"5","size_leaf_vector":"1"}},{"base_weights":[-1.2168068E-5,-3.1845694E-4,5.1403046E-4,3.8419454E-5,4.823685E-4],"categories":[],"categories_nodes":[],"categories_segments":[],"categories_sizes":[],"default_left":[0,0,0,0,0],"id":49,"left_children":[1,-1,3,-1,-1],"loss_changes":[6.619515E-6,0E0,3.1716377E-6,0E0,0E0],"parents":[2147483647,0,0,2,2],"right_children":[2,-1,4,-1,-1],"split_conditions":[3E0,-3.1845694E-4,9E0,3.8419454E-5,4.823685E-4],"split_indices":[0,0,0,0,0],"split_type":[0,0,0,0,0],"sum_hessian":[1E1,3E0,7E0,6E0,1E0],"tree_param":{"num_deleted":"0","num_feature":"1","num_nodes":"5","size_leaf_vector":"1"}},{"base_weights":[9.976793E-6,-4.172694E-4,2.8915406E-4,5.2769983E-6,4.099846E-4],"categories":[],"categories_nodes":[],"categories_segments":[],"categories_sizes":[],"default_left":[0,0,0,0,0],"id":50,"left_children":[1,-1,3,-1,-1],"loss_changes":[4.7041995E-6,0E0,2.9019589E-6,0E0,0E0],"parents":[2147483647,0,0,2,2],"right_children":[2,-1,4,-1,-1],"split_conditions":[1E0,-4.172694E-4,9E0,5.2769983E-6,4.099846E-4],"split_indices":[0,0,0,0,0],"split_type":[0,0,0,0,0],"sum_hessian":[1E1,1E0,9E0,8E0,1E0],"tree_param":{"num_deleted":"0","num_feature":"1","num_nodes":"5","size_leaf_vector":"1"}},{"base_weights":[6.5989284E-6,-2.7588708E-4,3.1460656E-4,1.9061566E-5,3.4847262E-4],"categories":[],"categories_nodes":[],"categories_segments":[],"categories_sizes":[],"default_left":[0,0,0,0,0],"id":51,"left_children":[1,-1,3,-1,-1],"loss_changes":[3.4274392E-6,0E0,1.8400159E-6,0E0,0E0],"parents":[2147483647,0,0,2,2],"right_children":[2,-1,4,-1,-1],"split_conditions":[2E0,-2.7588708E-4,9E0,1.9061566E-5,3.4847262E-4],"split_indices":[0,0,0,0,0],"split_type":[0,0,0,0,0],"sum_hessian":[1E1,2E0,8E0,7E0,1E0],"tree_param":{"num_deleted":"0","num_feature":"1","num_nodes":"5","size_leaf_vector":"1"}},{"base_weights":[1.2887854E-5,-3.1329592E-4,2.2304058E-4,8.543333E-6,2.9611588E-4],"categories":[],"categories_nodes":[],"categories_segments":[],"categories_sizes":[],"default_left":[0,0,0,0,0],"id":52,"left_children":[1,-1,3,-1,-1],"loss_changes":[2.6768512E-6,0E0,1.4583749E-6,0E0,0E0],"parents":[2147483647,0,0,2,2],"right_children":[2,-1,4,-1,-1],"split_conditions":[1E0,-3.1329592E-4,9E0,8.543333E-6,2.9611588E-4],"split_indices":[0,0,0,0,0],"split_type":[0,0,0,0,0],"sum_hessian":[1E1,1E0,9E0,8E0,1E0],"tree_param":{"num_deleted":"0","num_feature":"1","num_nodes":"5","size_leaf_vector":"1"}},{"base_weights":[8.250799E-6,-2.6630153E-4,1.8661022E-4,6.254514E-6,2.5177002E-4],"categories":[],"categories_nodes":[],"categories_segments":[],"categories_sizes":[],"default_left":[0,0,0,0,0],"id":53,"left_children":[1,-1,3,-1,-1],"loss_changes":[1.9234071E-6,0E0,1.0643034E-6,0E0,0E0],"parents":[2147483647,0,0,2,2],"right_children":[2,-1,4,-1,-1],"split_conditions":[1E0,-2.6630153E-4,9E0,6.254514E-6,2.5177002E-4],"split_indices":[0,0,0,0,0],"split_type":[0,0,0,0,0],"sum_hessian":[1E1,1E0,9E0,8E0,1E0],"tree_param":{"num_deleted":"0","num_feature":"1","num_nodes":"5","size_leaf_vector":"1"}},{"base_weights":[4.846825E-6,-7.396085E-5,1.5192032E-4],"categories":[],"categories_nodes":[],"categories_segments":[],"categories_sizes":[],"default_left":[0,0,0],"id":54,"left_children":[1,-1,-1],"loss_changes":[1.5117504E-6,0E0,0E0],"parents":[2147483647,0,0],"right_children":[2,-1,-1],"split_conditions":[7E0,-7.396085E-5,1.5192032E-4],"split_indices":[0,0,0],"split_type":[0,0,0],"sum_hessian":[1E1,7E0,3E0],"tree_param":{"num_deleted":"0","num_feature":"1","num_nodes":"3","size_leaf_vector":"1"}},{"base_weights":[1.0573517E-5,-2.1526216E-4,4.6541692E-5],"categories":[],"categories_nodes":[],"categories_segments":[],"categories_sizes":[],"default_left":[0,0,0],"id":55,"left_children":[1,-1,-1],"loss_changes":[1.26918E-6,0E0,0E0],"parents":[2147483647,0,0],"right_children":[2,-1,-1],"split_conditions":[1E0,-2.1526216E-4,4.6541692E-5],"split_indices":[0,0,0],"split_type":[0,0,0],"sum_hessian":[1E1,1E0,9E0],"tree_param":{"num_deleted":"0","num_feature":"1","num_nodes":"3","size_leaf_vector":"1"}},{"base_weights":[-7.982493E-6],"categories":[],"categories_nodes":[],"categories_segments":[],"categories_sizes":[],"default_left":[0],"id":56,"left_children":[-1],"loss_changes":[0E0],"parents":[2147483647],"right_children":[-1],"split_conditions":[-2.394748E-6],"split_indices":[0],"split_type":[0],"sum_hessian":[1E1],"tree_param":{"num_deleted":"0","num_feature":"1","num_nodes":"1","size_leaf_vector":"1"}},{"base_weights":[-5.640693E-6],"categories":[],"categories_nodes":[],"categories_segments":[],"categories_sizes":[],"default_left":[0],"id":57,"left_children":[-1],"loss_changes":[0E0],"parents":[2147483647],"right_children":[-1],"split_conditions":[-1.692208E-6],"split_indices":[0],"split_type":[0],"sum_hessian":[1E1],"tree_param":{"num_deleted":"0","num_feature":"1","num_nodes":"1","size_leaf_vector":"1"}},{"base_weights":[-3.9479714E-6],"categories":[],"categories_nodes":[],"categories_segments":[],"categories_sizes":[],"default_left":[0],"id":58,"left_children":[-1],"loss_changes":[0E0],"parents":[2147483647],"right_children":[-1],"split_conditions":[-1.1843915E-6],"split_indices":[0],"split_type":[0],"sum_hessian":[1E1],"tree_param":{"num_deleted":"0","num_feature":"1","num_nodes":"1","size_leaf_vector":"1"}},{"base_weights":[-2.951647E-6],"categories":[],"categories_nodes":[],"categories_segments":[],"categories_sizes":[],"default_left":[0],"id":59,"left_children":[-1],"loss_changes":[0E0],"parents":[2147483647],"right_children":[-1],"split_conditions":[-8.8549416E-7],"split_indices":[0],"split_type":[0],"sum_hessian":[1E1],"tree_param":{"num_deleted":"0","num_feature":"1","num_nodes":"1","size_leaf_vector":"1"}},{"base_weights":[-2.1775697E-6],"categories":[],"categories_nodes":[],"categories_segments":[],"categories_sizes":[],"default_left":[0],"id":60,"left_children":[-1],"loss_changes":[0E0],"parents":[2147483647],"right_children":[-1],"split_conditions":[-6.5327094E-7],"split_indices":[0],"split_type":[0],"sum_hessian":[1E1],"tree_param":{"num_deleted":"0","num_feature":"1","num_nodes":"1","size_leaf_vector":"1"}},{"base_weights":[-1.5329675E-6],"categories":[],"categories_nodes":[],"categories_segments":[],"categories_sizes":[],"default_left":[0],"id":61,"left_children":[-1],"loss_changes":[0E0],"parents":[2147483647],"right_children":[-1],"split_conditions":[-4.598903E-7],"split_indices":[0],"split_type":[0],"sum_hessian":[1E1],"tree_param":{"num_deleted":"0","num_feature":"1","num_nodes":"1","size_leaf_vector":"1"}},{"base_weights":[-1.3611174E-6],"categories":[],"categories_nodes":[],"categories_segments":[],"categories_sizes":[],"default_left":[0],"id":62,"left_children":[-1],"loss_changes":[0E0],"parents":[2147483647],"right_children":[-1],"split_conditions":[-4.0833524E-7],"split_indices":[0],"split_type":[0],"sum_hessian":[1E1],"tree_param":{"num_deleted":"0","num_feature":"1","num_nodes":"1","size_leaf_vector":"1"}},{"base_weights":[-1.193945E-6],"categories":[],"categories_nodes":[],"categories_segments":[],"categories_sizes":[],"default_left":[0],"id":63,"left_children":[-1],"loss_changes":[0E0],"parents":[2147483647],"right_children":[-1],"split_conditions":[-3.581835E-7],"split_indices":[0],"split_type":[0],"sum_hessian":[1E1],"tree_param":{"num_deleted":"0","num_feature":"1","num_nodes":"1","size_leaf_vector":"1"}},{"base_weights":[-1.0313339E-6],"categories":[],"categories_nodes":[],"categories_segments":[],"categories_sizes":[],"default_left":[0],"id":64,"left_children":[-1],"loss_changes":[0E0],"parents":[2147483647],"right_children":[-1],"split_conditions":[-3.0940018E-7],"split_indices":[0],"split_type":[0],"sum_hessian":[1E1],"tree_param":{"num_deleted":"0","num_feature":"1","num_nodes":"1","size_leaf_vector":"1"}},{"base_weights":[-8.9483166E-7],"categories":[],"categories_nodes":[],"categories_segments":[],"categories_sizes":[],"default_left":[0],"id":65,"left_children":[-1],"loss_changes":[0E0],"parents":[2147483647],"right_children":[-1],"split_conditions":[-2.684495E-7],"split_indices":[0],"split_type":[0],"sum_hessian":[1E1],"tree_param":{"num_deleted":"0","num_feature":"1","num_nodes":"1","size_leaf_vector":"1"}},{"base_weights":[-7.620547E-7],"categories":[],"categories_nodes":[],"categories_segments":[],"categories_sizes":[],"default_left":[0],"id":66,"left_children":[-1],"loss_changes":[0E0],"parents":[2147483647],"right_children":[-1],"split_conditions":[-2.2861641E-7],"split_indices":[0],"split_type":[0],"sum_hessian":[1E1],"tree_param":{"num_deleted":"0","num_feature":"1","num_nodes":"1","size_leaf_vector":"1"}},{"base_weights":[-7.195949E-7],"categories":[],"categories_nodes":[],"categories_segments":[],"categories_sizes":[],"default_left":[0],"id":67,"left_children":[-1],"loss_changes":[0E0],"parents":[2147483647],"right_children":[-1],"split_conditions":[-2.1587847E-7],"split_indices":[0],"split_type":[0],"sum_hessian":[1E1],"tree_param":{"num_deleted":"0","num_feature":"1","num_nodes":"1","size_leaf_vector":"1"}},{"base_weights":[-6.7829916E-7],"categories":[],"categories_nodes":[],"categories_segments":[],"categories_sizes":[],"default_left":[0],"id":68,"left_children":[-1],"loss_changes":[0E0],"parents":[2147483647],"right_children":[-1],"split_conditions":[-2.0348976E-7],"split_indices":[0],"split_type":[0],"sum_hessian":[1E1],"tree_param":{"num_deleted":"0","num_feature":"1","num_nodes":"1","size_leaf_vector":"1"}},{"base_weights":[-6.381253E-7],"categories":[],"categories_nodes":[],"categories_segments":[],"categories_sizes":[],"default_left":[0],"id":69,"left_children":[-1],"loss_changes":[0E0],"parents":[2147483647],"right_children":[-1],"split_conditions":[-1.9143759E-7],"split_indices":[0],"split_type":[0],"sum_hessian":[1E1],"tree_param":{"num_deleted":"0","num_feature":"1","num_nodes":"1","size_leaf_vector":"1"}},{"base_weights":[-5.990521E-7],"categories":[],"categories_nodes":[],"categories_segments":[],"categories_sizes":[],"default_left":[0],"id":70,"left_children":[-1],"loss_changes":[0E0],"parents":[2147483647],"right_children":[-1],"split_conditions":[-1.7971564E-7],"split_indices":[0],"split_type":[0],"sum_hessian":[1E1],"tree_param":{"num_deleted":"0","num_feature":"1","num_nodes":"1","size_leaf_vector":"1"}},{"base_weights":[-5.610372E-7],"categories":[],"categories_nodes":[],"categories_segments":[],"categories_sizes":[],"default_left":[0],"id":71,"left_children":[-1],"loss_changes":[0E0],"parents":[2147483647],"right_children":[-1],"split_conditions":[-1.6831117E-7],"split_indices":[0],"split_type":[0],"sum_hessian":[1E1],"tree_param":{"num_deleted":"0","num_feature":"1","num_nodes":"1","size_leaf_vector":"1"}},{"base_weights":[-5.2405943E-7],"categories":[],"categories_nodes":[],"categories_segments":[],"categories_sizes":[],"default_left":[0],"id":72,"left_children":[-1],"loss_changes":[0E0],"parents":[2147483647],"right_children":[-1],"split_conditions":[-1.5721784E-7],"split_indices":[0],"split_type":[0],"sum_hessian":[1E1],"tree_param":{"num_deleted":"0","num_feature":"1","num_nodes":"1","size_leaf_vector":"1"}},{"base_weights":[-4.8809767E-7],"categories":[],"categories_nodes":[],"categories_segments":[],"categories_sizes":[],"default_left":[0],"id":73,"left_children":[-1],"loss_changes":[0E0],"parents":[2147483647],"right_children":[-1],"split_conditions":[-1.464293E-7],"split_indices":[0],"split_type":[0],"sum_hessian":[1E1],"tree_param":{"num_deleted":"0","num_feature":"1","num_nodes":"1","size_leaf_vector":"1"}},{"base_weights":[-4.531096E-7],"categories":[],"categories_nodes":[],"categories_segments":[],"categories_sizes":[],"default_left":[0],"id":74,"left_children":[-1],"loss_changes":[0E0],"parents":[2147483647],"right_children":[-1],"split_conditions":[-1.359329E-7],"split_indices":[0],"split_type":[0],"sum_hessian":[1E1],"tree_param":{"num_deleted":"0","num_feature":"1","num_nodes":"1","size_leaf_vector":"1"}},{"base_weights":[-4.1907398E-7],"categories":[],"categories_nodes":[],"categories_segments":[],"categories_sizes":[],"default_left":[0],"id":75,"left_children":[-1],"loss_changes":[0E0],"parents":[2147483647],"right_children":[-1],"split_conditions":[-1.257222E-7],"split_indices":[0],"split_type":[0],"sum_hessian":[1E1],"tree_param":{"num_deleted":"0","num_feature":"1","num_nodes":"1","size_leaf_vector":"1"}},{"base_weights":[-3.859697E-7],"categories":[],"categories_nodes":[],"categories_segments":[],"categories_sizes":[],"default_left":[0],"id":76,"left_children":[-1],"loss_changes":[0E0],"parents":[2147483647],"right_children":[-1],"split_conditions":[-1.1579092E-7],"split_indices":[0],"split_type":[0],"sum_hessian":[1E1],"tree_param":{"num_deleted":"0","num_feature":"1","num_nodes":"1","size_leaf_vector":"1"}},{"base_weights":[-3.754394E-7],"categories":[],"categories_nodes":[],"categories_segments":[],"categories_sizes":[],"default_left":[0],"id":77,"left_children":[-1],"loss_changes":[0E0],"parents":[2147483647],"right_children":[-1],"split_conditions":[-1.1263183E-7],"split_indices":[0],"split_type":[0],"sum_hessian":[1E1],"tree_param":{"num_deleted":"0","num_feature":"1","num_nodes":"1","size_leaf_vector":"1"}},{"base_weights":[-3.6519486E-7],"categories":[],"categories_nodes":[],"categories_segments":[],"categories_sizes":[],"default_left":[0],"id":78,"left_children":[-1],"loss_changes":[0E0],"parents":[2147483647],"right_children":[-1],"split_conditions":[-1.09558464E-7],"split_indices":[0],"split_type":[0],"sum_hessian":[1E1],"tree_param":{"num_deleted":"0","num_feature":"1","num_nodes":"1","size_leaf_vector":"1"}},{"base_weights":[-3.5523607E-7],"categories":[],"categories_nodes":[],"categories_segments":[],"categories_sizes":[],"default_left":[0],"id":79,"left_children":[-1],"loss_changes":[0E0],"parents":[2147483647],"right_children":[-1],"split_conditions":[-1.0657082E-7],"split_indices":[0],"split_type":[0],"sum_hessian":[1E1],"tree_param":{"num_deleted":"0","num_feature":"1","num_nodes":"1","size_leaf_vector":"1"}},{"base_weights":[-3.4555242E-7],"categories":[],"categories_nodes":[],"categories_segments":[],"categories_sizes":[],"default_left":[0],"id":80,"left_children":[-1],"loss_changes":[0E0],"parents":[2147483647],"right_children":[-1],"split_conditions":[-1.03665734E-7],"split_indices":[0],"split_type":[0],"sum_hessian":[1E1],"tree_param":{"num_deleted":"0","num_feature":"1","num_nodes":"1","size_leaf_vector":"1"}},{"base_weights":[-3.3613335E-7],"categories":[],"categories_nodes":[],"categories_segments":[],"categories_sizes":[],"default_left":[0],"id":81,"left_children":[-1],"loss_changes":[0E0],"parents":[2147483647],"right_children":[-1],"split_conditions":[-1.0084001E-7],"split_indices":[0],"split_type":[0],"sum_hessian":[1E1],"tree_param":{"num_deleted":"0","num_feature":"1","num_nodes":"1","size_leaf_vector":"1"}},{"base_weights":[-3.2696832E-7],"categories":[],"categories_nodes":[],"categories_segments":[],"categories_sizes":[],"default_left":[0],"id":82,"left_children":[-1],"loss_changes":[0E0],"parents":[2147483647],"right_children":[-1],"split_conditions":[-9.80905E-8],"split_indices":[0],"split_type":[0],"sum_hessian":[1E1],"tree_param":{"num_deleted":"0","num_feature":"1","num_nodes":"1","size_leaf_vector":"1"}},{"base_weights":[-3.1804666E-7],"categories":[],"categories_nodes":[],"categories_segments":[],"categories_sizes":[],"default_left":[0],"id":83,"left_children":[-1],"loss_changes":[0E0],"parents":[2147483647],"right_children":[-1],"split_conditions":[-9.5414E-8],"split_indices":[0],"split_type":[0],"sum_hessian":[1E1],"tree_param":{"num_deleted":"0","num_feature":"1","num_nodes":"1","size_leaf_vector":"1"}},{"base_weights":[-3.0936843E-7],"categories":[],"categories_nodes":[],"categories_segments":[],"categories_sizes":[],"default_left":[0],"id":84,"left_children":[-1],"loss_changes":[0E0],"parents":[2147483647],"right_children":[-1],"split_conditions":[-9.281053E-8],"split_indices":[0],"split_type":[0],"sum_hessian":[1E1],"tree_param":{"num_deleted":"0","num_feature":"1","num_nodes":"1","size_leaf_vector":"1"}},{"base_weights":[-3.009336E-7],"categories":[],"categories_nodes":[],"categories_segments":[],"categories_sizes":[],"default_left":[0],"id":85,"left_children":[-1],"loss_changes":[0E0],"parents":[2147483647],"right_children":[-1],"split_conditions":[-9.028009E-8],"split_indices":[0],"split_type":[0],"sum_hessian":[1E1],"tree_param":{"num_deleted":"0","num_feature":"1","num_nodes":"1","size_leaf_vector":"1"}},{"base_weights":[-2.9272104E-7],"categories":[],"categories_nodes":[],"categories_segments":[],"categories_sizes":[],"default_left":[0],"id":86,"left_children":[-1],"loss_changes":[0E0],"parents":[2147483647],"right_children":[-1],"split_conditions":[-8.781632E-8],"split_indices":[0],"split_type":[0],"sum_hessian":[1E1],"tree_param":{"num_deleted":"0","num_feature":"1","num_nodes":"1","size_leaf_vector":"1"}},{"base_weights":[-2.847413E-7],"categories":[],"categories_nodes":[],"categories_segments":[],"categories_sizes":[],"default_left":[0],"id":87,"left_children":[-1],"loss_changes":[0E0],"parents":[2147483647],"right_children":[-1],"split_conditions":[-8.542239E-8],"split_indices":[0],"split_type":[0],"sum_hessian":[1E1],"tree_param":{"num_deleted":"0","num_feature":"1","num_nodes":"1","size_leaf_vector":"1"}},{"base_weights":[-2.7697322E-7],"categories":[],"categories_nodes":[],"categories_segments":[],"categories_sizes":[],"default_left":[0],"id":88,"left_children":[-1],"loss_changes":[0E0],"parents":[2147483647],"right_children":[-1],"split_conditions":[-8.309197E-8],"split_indices":[0],"split_type":[0],"sum_hessian":[1E1],"tree_param":{"num_deleted":"0","num_feature":"1","num_nodes":"1","size_leaf_vector":"1"}},{"base_weights":[-2.694168E-7],"categories":[],"categories_nodes":[],"categories_segments":[],"categories_sizes":[],"default_left":[0],"id":89,"left_children":[-1],"loss_changes":[0E0],"parents":[2147483647],"right_children":[-1],"split_conditions":[-8.0825046E-8],"split_indices":[0],"split_type":[0],"sum_hessian":[1E1],"tree_param":{"num_deleted":"0","num_feature":"1","num_nodes":"1","size_leaf_vector":"1"}},{"base_weights":[-2.6207206E-7],"categories":[],"categories_nodes":[],"categories_segments":[],"categories_sizes":[],"default_left":[0],"id":90,"left_children":[-1],"loss_changes":[0E0],"parents":[2147483647],"right_children":[-1],"split_conditions":[-7.8621625E-8],"split_indices":[0],"split_type":[0],"sum_hessian":[1E1],"tree_param":{"num_deleted":"0","num_feature":"1","num_nodes":"1","size_leaf_vector":"1"}},{"base_weights":[-2.5492838E-7],"categories":[],"categories_nodes":[],"categories_segments":[],"categories_sizes":[],"default_left":[0],"id":91,"left_children":[-1],"loss_changes":[0E0],"parents":[2147483647],"right_children":[-1],"split_conditions":[-7.6478514E-8],"split_indices":[0],"split_type":[0],"sum_hessian":[1E1],"tree_param":{"num_deleted":"0","num_feature":"1","num_nodes":"1","size_leaf_vector":"1"}},{"base_weights":[-2.479752E-7],"categories":[],"categories_nodes":[],"categories_segments":[],"categories_sizes":[],"default_left":[0],"id":92,"left_children":[-1],"loss_changes":[0E0],"parents":[2147483647],"right_children":[-1],"split_conditions":[-7.439257E-8],"split_indices":[0],"split_type":[0],"sum_hessian":[1E1],"tree_param":{"num_deleted":"0","num_feature":"1","num_nodes":"1","size_leaf_vector":"1"}},{"base_weights":[-2.4121255E-7],"categories":[],"categories_nodes":[],"categories_segments":[],"categories_sizes":[],"default_left":[0],"id":93,"left_children":[-1],"loss_changes":[0E0],"parents":[2147483647],"right_children":[-1],"split_conditions":[-7.236377E-8],"split_indices":[0],"split_type":[0],"sum_hessian":[1E1],"tree_param":{"num_deleted":"0","num_feature":"1","num_nodes":"1","size_leaf_vector":"1"}},{"base_weights":[-2.346298E-7],"categories":[],"categories_nodes":[],"categories_segments":[],"categories_sizes":[],"default_left":[0],"id":94,"left_children":[-1],"loss_changes":[0E0],"parents":[2147483647],"right_children":[-1],"split_conditions":[-7.038894E-8],"split_indices":[0],"split_type":[0],"sum_hessian":[1E1],"tree_param":{"num_deleted":"0","num_feature":"1","num_nodes":"1","size_leaf_vector":"1"}},{"base_weights":[-2.2822695E-7],"categories":[],"categories_nodes":[],"categories_segments":[],"categories_sizes":[],"default_left":[0],"id":95,"left_children":[-1],"loss_changes":[0E0],"parents":[2147483647],"right_children":[-1],"split_conditions":[-6.846809E-8],"split_indices":[0],"split_type":[0],"sum_hessian":[1E1],"tree_param":{"num_deleted":"0","num_feature":"1","num_nodes":"1","size_leaf_vector":"1"}},{"base_weights":[-2.2200402E-7],"categories":[],"categories_nodes":[],"categories_segments":[],"categories_sizes":[],"default_left":[0],"id":96,"left_children":[-1],"loss_changes":[0E0],"parents":[2147483647],"right_children":[-1],"split_conditions":[-6.660121E-8],"split_indices":[0],"split_type":[0],"sum_hessian":[1E1],"tree_param":{"num_deleted":"0","num_feature":"1","num_nodes":"1","size_leaf_vector":"1"}},{"base_weights":[-2.1595042E-7],"categories":[],"categories_nodes":[],"categories_segments":[],"categories_sizes":[],"default_left":[0],"id":97,"left_children":[-1],"loss_changes":[0E0],"parents":[2147483647],"right_children":[-1],"split_conditions":[-6.478513E-8],"split_indices":[0],"split_type":[0],"sum_hessian":[1E1],"tree_param":{"num_deleted":"0","num_feature":"1","num_nodes":"1","size_leaf_vector":"1"}},{"base_weights":[-2.1005557E-7],"categories":[],"categories_nodes":[],"categories_segments":[],"categories_sizes":[],"default_left":[0],"id":98,"left_children":[-1],"loss_changes":[0E0],"parents":[2147483647],"right_children":[-1],"split_conditions":[-6.301668E-8],"split_indices":[0],"split_type":[0],"sum_hessian":[1E1],"tree_param":{"num_deleted":"0","num_feature":"1","num_nodes":"1","size_leaf_vector":"1"}},{"base_weights":[-2.0433005E-7],"categories":[],"categories_nodes":[],"categories_segments":[],"categories_sizes":[],"default_left":[0],"id":99,"left_children":[-1],"loss_changes":[0E0],"parents":[2147483647],"right_children":[-1],"split_conditions":[-6.129902E-8],"split_indices":[0],"split_type":[0],"sum_hessian":[1E1],"tree_param":{"num_deleted":"0","num_feature":"1","num_nodes":"1","size_leaf_vector":"1"}}]},"name":"gbtree"},"learner_model_param":{"base_score":"9E0","boost_from_average":"1","num_class":"0","num_feature":"1","num_target":"1"},"objective":{"name":"reg:squarederror","reg_loss_param":{"scale_pos_weight":"1"}}},"version":[3,0,0]}